<?xml version="1.0"?>
<opencv_storage>
<cascade>
  <stageType>BOOST</stageType>
  <featureType>HAAR</featureType>
  <height>24</height>
  <width>24</width>
  <stageParams>
    <boostType>GAB</boostType>
    <minHitRate>9.9500000476837158e-01</minHitRate>
    <maxFalseAlarm>5.0000000000000000e-01</maxFalseAlarm>
    <weightTrimRate>9.4999998807907104e-01</weightTrimRate>
    <maxDepth>1</maxDepth>
    <maxWeakCount>100</maxWeakCount></stageParams>
  <featureParams>
    <maxCatCount>0</maxCatCount>
    <featSize>1</featSize>
    <mode>BASIC</mode></featureParams>
  <stageNum>25</stageNum>
  <stages>
    <!-- stage 0 -->
    <_>
      <maxWeakCount>4</maxWeakCount>
      <stageThreshold>-1.4489669799804688e+00</stageThreshold>
      <weakClassifiers>
        <_>
          <internalNodes>
            0 -1 54 -1.2484022974967957e-01</internalNodes>
          <leafValues>
            2.5274726748466492e-01 -8.8688945770263672e-01</leafValues></_>
        <_>
          <internalNodes>
            0 -1 24 4.1857551783323288e-02</internalNodes>
          <leafValues>
            -5.5127900838851929e-01 8.5524553060531616e-01</leafValues></_>
        <_>
          <internalNodes>
            0 -1 121 3.9463993161916733e-03</internalNodes>
          <leafValues>
            -6.0116195678710938e-01 5.2338540554046631e-01</leafValues></_>
        <_>
          <internalNodes>
            0 -1 8 -9.6100583672523499e-02</internalNodes>
          <leafValues>
            5.9264498949050903e-01 -5.3418397903442383e-01</leafValues></_></weakClassifiers></_>
    <!-- stage 1 -->
    <_>
      <maxWeakCount>6</maxWeakCount>
      <stageThreshold>-1.7025940418243408e+00</stageThreshold>
      <weakClassifiers>
        <_>
          <internalNodes>
            0 -1 1 -4.8439088463783264e-01</internalNodes>
          <leafValues>
            4.9152541160583496e-01 -8.3372920751571655e-01</leafValues></_>
        <_>
          <internalNodes>
            0 -1 37 -4.9060899019241333e-01</internalNodes>
          <leafValues>
            7.1222096681594849e-01 -5.4969483613967896e-01</leafValues></_>
        <_>
          <internalNodes>
            0 -1 136 -4.1503383545204997e-04</internalNodes>
          <leafValues>
            -8.0537468194961548e-01 2.5854825973510742e-01</leafValues></_>
        <_>
          <internalNodes>
            0 -1 113 3.8655295968055725e-02</internalNodes>
          <leafValues>
            -4.9552407860755920e-01 5.4113191366195679e-01</leafValues></_>
        <_>
          <internalNodes>
            0 -1 32 -2.4291787296533585e-02</internalNodes>
          <leafValues>
            6.4327061176300049e-01 -3.6436468362808228e-01</leafValues></_>
        <_>
          <internalNodes>
            0 -1 48 1.8798923119902611e-03</internalNodes>
          <leafValues>
            2.8217053413391113e-01 -8.0622851848602295e-01</leafValues></_></weakClassifiers></_>
    <!-- stage 2 -->
    <_>
      <maxWeakCount>6</maxWeakCount>
      <stageThreshold>-1.5264507532119751e+00</stageThreshold>
      <weakClassifiers>
        <_>
          <internalNodes>
            0 -1 126 1.0177598148584366e-01</internalNodes>
          <leafValues>
            -8.0997622013092041e-01 3.2203391194343567e-01</leafValues></_>
        <_>
          <internalNodes>
            0 -1 51 -5.3686267137527466e-01</internalNodes>
          <leafValues>
            6.3250595331192017e-01 -4.6219611167907715e-01</leafValues></_>
        <_>
          <internalNodes>
            0 -1 2 -5.3870487213134766e-01</internalNodes>
          <leafValues>
            7.0594918727874756e-01 -3.0422630906105042e-01</leafValues></_>
        <_>
          <internalNodes>
            0 -1 33 -1.9102405756711960e-02</internalNodes>
          <leafValues>
            5.5594009160995483e-01 -3.6215680837631226e-01</leafValues></_>
        <_>
          <internalNodes>
            0 -1 46 -3.2269395887851715e-04</internalNodes>
          <leafValues>
            -9.6732622385025024e-01 2.4950806796550751e-01</leafValues></_>
        <_>
          <internalNodes>
            0 -1 145 -2.5561073562130332e-04</internalNodes>
          <leafValues>
            -1. 1.6259661316871643e-01</leafValues></_></weakClassifiers></_>
    <!-- stage 3 -->
    <_>
      <maxWeakCount>6</maxWeakCount>
      <stageThreshold>-1.7085784673690796e+00</stageThreshold>
      <weakClassifiers>
        <_>
          <internalNodes>
            0 -1 9 -3.1414714455604553e-01</internalNodes>
          <leafValues>
            2.3636363446712494e-01 -7.8823530673980713e-01</leafValues></_>
        <_>
          <internalNodes>
            0 -1 115 -6.6648975014686584e-02</internalNodes>
          <leafValues>
            4.1841536760330200e-01 -5.4171937704086304e-01</leafValues></_>
        <_>
          <internalNodes>
            0 -1 28 -1.2744493142236024e-04</internalNodes>
          <leafValues>
            -8.1716167926788330e-01 1.9311471283435822e-01</leafValues></_>
        <_>
          <internalNodes>
            0 -1 147 -7.5459647923707962e-03</internalNodes>
          <leafValues>
            -7.3569875955581665e-01 2.1611352264881134e-01</leafValues></_>
        <_>
          <internalNodes>
            0 -1 69 -3.6719810217618942e-02</internalNodes>
          <leafValues>
            4.4783392548561096e-01 -4.0012270212173462e-01</leafValues></_>
        <_>
          <internalNodes>
            0 -1 76 3.7973700091242790e-03</internalNodes>
          <leafValues>
            -3.8772928714752197e-01 5.1364159584045410e-01</leafValues></_></weakClassifiers></_>
    <!-- stage 4 -->
    <_>
      <maxWeakCount>4</maxWeakCount>
      <stageThreshold>-9.9154883623123169e-01</stageThreshold>
      <weakClassifiers>
        <_>
          <internalNodes>
            0 -1 50 -1.0118775069713593e-01</internalNodes>
          <leafValues>
            7.5268819928169250e-02 -8.5012918710708618e-01</leafValues></_>
        <_>
          <internalNodes>
            0 -1 38 -3.7544610677286983e-05</internalNodes>
          <leafValues>
            -7.4486309289932251e-01 6.9111332297325134e-02</leafValues></_>
        <_>
          <internalNodes>
            0 -1 144 1.3793742982670665e-04</internalNodes>
          <leafValues>
            2.4705825746059418e-01 -7.2484678030014038e-01</leafValues></_>
        <_>
          <internalNodes>
            0 -1 35 4.5497501268982887e-03</internalNodes>
          <leafValues>
            -4.0087711811065674e-01 5.1431578397750854e-01</leafValues></_></weakClassifiers></_>
    <!-- stage 5 -->
    <_>
      <maxWeakCount>4</maxWeakCount>
      <stageThreshold>-1.6091748476028442e+00</stageThreshold>
      <weakClassifiers>
        <_>
          <internalNodes>
            0 -1 98 1.8556976318359375e-01</internalNodes>
          <leafValues>
            -8.4848487377166748e-01 1.6666667163372040e-01</leafValues></_>
        <_>
          <internalNodes>
            0 -1 18 -1.7389671877026558e-02</internalNodes>
          <leafValues>
            5.7706081867218018e-01 -6.3403445482254028e-01</leafValues></_>
        <_>
          <internalNodes>
            0 -1 148 -1.9548651762306690e-03</internalNodes>
          <leafValues>
            -6.8955588340759277e-01 3.9535290002822876e-01</leafValues></_>
        <_>
          <internalNodes>
            0 -1 75 -6.2389727681875229e-03</internalNodes>
          <leafValues>
            5.6290036439895630e-01 -5.0305151939392090e-01</leafValues></_></weakClassifiers></_>
    <!-- stage 6 -->
    <_>
      <maxWeakCount>4</maxWeakCount>
      <stageThreshold>-1.3694797754287720e+00</stageThreshold>
      <weakClassifiers>
        <_>
          <internalNodes>
            0 -1 16 -1.9830478355288506e-02</internalNodes>
          <leafValues>
            2.9629629850387573e-01 -7.9342722892761230e-01</leafValues></_>
        <_>
          <internalNodes>
            0 -1 10 -4.7388315200805664e-01</internalNodes>
          <leafValues>
            6.6961729526519775e-01 -5.7050615549087524e-01</leafValues></_>
        <_>
          <internalNodes>
            0 -1 97 -1.9234690815210342e-02</internalNodes>
          <leafValues>
            3.9917910099029541e-01 -5.6524109840393066e-01</leafValues></_>
        <_>
          <internalNodes>
            0 -1 92 -1.9044999498873949e-03</internalNodes>
          <leafValues>
            5.7497882843017578e-01 -4.0472546219825745e-01</leafValues></_></weakClassifiers></_>
    <!-- stage 7 -->
    <_>
      <maxWeakCount>6</maxWeakCount>
      <stageThreshold>-1.3861112594604492e+00</stageThreshold>
      <weakClassifiers>
        <_>
          <internalNodes>
            0 -1 7 -8.3753667771816254e-02</internalNodes>
          <leafValues>
            -1.4285714924335480e-01 -8.0628269910812378e-01</leafValues></_>
        <_>
          <internalNodes>
            0 -1 6 -2.0796421449631453e-04</internalNodes>
          <leafValues>
            -7.9868507385253906e-01 8.1573292613029480e-02</leafValues></_>
        <_>
          <internalNodes>
            0 -1 137 -9.4185437774285674e-05</internalNodes>
          <leafValues>
            -7.4632424116134644e-01 1.9939479231834412e-01</leafValues></_>
        <_>
          <internalNodes>
            0 -1 22 -7.5537990778684616e-04</internalNodes>
          <leafValues>
            -7.3604881763458252e-01 2.1068592369556427e-01</leafValues></_>
        <_>
          <internalNodes>
            0 -1 43 1.9145864993333817e-02</internalNodes>
          <leafValues>
            -2.6604062318801880e-01 6.3339585065841675e-01</leafValues></_>
        <_>
          <internalNodes>
            0 -1 139 -1.5127239748835564e-04</internalNodes>
          <leafValues>
            -7.5915932655334473e-01 2.4365863204002380e-01</leafValues></_></weakClassifiers></_>
    <!-- stage 8 -->
    <_>
      <maxWeakCount>7</maxWeakCount>
      <stageThreshold>-1.0728895664215088e+00</stageThreshold>
      <weakClassifiers>
        <_>
          <internalNodes>
            0 -1 53 -3.8869038224220276e-02</internalNodes>
          <leafValues>
            1.9230769574642181e-01 -7.7570092678070068e-01</leafValues></_>
        <_>
          <internalNodes>
            0 -1 108 -4.5973234227858484e-04</internalNodes>
          <leafValues>
            -7.5954473018646240e-01 1.3621027767658234e-01</leafValues></_>
        <_>
          <internalNodes>
            0 -1 55 -7.8033546742517501e-05</internalNodes>
          <leafValues>
            -7.7120256423950195e-01 1.9073560833930969e-01</leafValues></_>
        <_>
          <internalNodes>
            0 -1 118 -2.2368011996150017e-03</internalNodes>
          <leafValues>
            3.5185828804969788e-01 -5.4136306047439575e-01</leafValues></_>
        <_>
          <internalNodes>
            0 -1 130 -3.2940512755885720e-04</internalNodes>
          <leafValues>
            -6.6206240653991699e-01 2.7317801117897034e-01</leafValues></_>
        <_>
          <internalNodes>
            0 -1 4 2.9841315699741244e-04</internalNodes>
          <leafValues>
            2.8325060009956360e-01 -5.9191721677780151e-01</leafValues></_>
        <_>
          <internalNodes>
            0 -1 40 -2.7899684384465218e-02</internalNodes>
          <leafValues>
            3.6475712060928345e-01 -5.2018892765045166e-01</leafValues></_></weakClassifiers></_>
    <!-- stage 9 -->
    <_>
      <maxWeakCount>4</maxWeakCount>
      <stageThreshold>-1.1500401496887207e+00</stageThreshold>
      <weakClassifiers>
        <_>
          <internalNodes>
            0 -1 11 -7.2754912078380585e-02</internalNodes>
          <leafValues>
            -1.0416666418313980e-01 -8.1250000000000000e-01</leafValues></_>
        <_>
          <internalNodes>
            0 -1 5 -1.5202871873043478e-04</internalNodes>
          <leafValues>
            -7.6637065410614014e-01 7.0283062756061554e-02</leafValues></_>
        <_>
          <internalNodes>
            0 -1 124 -6.2124885153025389e-04</internalNodes>
          <leafValues>
            -8.6789506673812866e-01 1.6179668903350830e-01</leafValues></_>
        <_>
          <internalNodes>
            0 -1 89 -1.0578505462035537e-03</internalNodes>
          <leafValues>
            4.6007189154624939e-01 -4.0398567914962769e-01</leafValues></_></weakClassifiers></_>
    <!-- stage 10 -->
    <_>
      <maxWeakCount>6</maxWeakCount>
      <stageThreshold>-1.3250371217727661e+00</stageThreshold>
      <weakClassifiers>
        <_>
          <internalNodes>
            0 -1 30 -4.5378193259239197e-02</internalNodes>
          <leafValues>
            -2.9411764815449715e-02 -7.7669900655746460e-01</leafValues></_>
        <_>
          <internalNodes>
            0 -1 25 5.0293002277612686e-04</internalNodes>
          <leafValues>
            5.4879762232303619e-02 -8.6424243450164795e-01</leafValues></_>
        <_>
          <internalNodes>
            0 -1 114 1.9951753783971071e-03</internalNodes>
          <leafValues>
            -6.6999143362045288e-01 2.2884698212146759e-01</leafValues></_>
        <_>
          <internalNodes>
            0 -1 47 5.4039730457589030e-04</internalNodes>
          <leafValues>
            2.3920625448226929e-01 -8.0546456575393677e-01</leafValues></_>
        <_>
          <internalNodes>
            0 -1 101 -2.3185318335890770e-02</internalNodes>
          <leafValues>
            5.8166742324829102e-01 -3.2556721568107605e-01</leafValues></_>
        <_>
          <internalNodes>
            0 -1 59 -2.0030979067087173e-04</internalNodes>
          <leafValues>
            -7.4570393562316895e-01 2.6932090520858765e-01</leafValues></_></weakClassifiers></_>
    <!-- stage 11 -->
    <_>
      <maxWeakCount>6</maxWeakCount>
      <stageThreshold>-9.9290752410888672e-01</stageThreshold>
      <weakClassifiers>
        <_>
          <internalNodes>
            0 -1 60 -2.8476696461439133e-02</internalNodes>
          <leafValues>
            1.4492753893136978e-02 -7.8588807582855225e-01</leafValues></_>
        <_>
          <internalNodes>
            0 -1 135 2.5421241298317909e-04</internalNodes>
          <leafValues>
            8.1921398639678955e-02 -6.9669198989868164e-01</leafValues></_>
        <_>
          <internalNodes>
            0 -1 45 1.0983999527525157e-04</internalNodes>
          <leafValues>
            1.4237526059150696e-01 -7.7617961168289185e-01</leafValues></_>
        <_>
          <internalNodes>
            0 -1 58 -4.8698219470679760e-03</internalNodes>
          <leafValues>
            5.1911723613739014e-01 -2.7283227443695068e-01</leafValues></_>
        <_>
          <internalNodes>
            0 -1 140 -4.7173445636872202e-05</internalNodes>
          <leafValues>
            -6.7437261343002319e-01 2.4351738393306732e-01</leafValues></_>
        <_>
          <internalNodes>
            0 -1 132 -8.4357652813196182e-03</internalNodes>
          <leafValues>
            5.8780068159103394e-01 -2.8449210524559021e-01</leafValues></_></weakClassifiers></_>
    <!-- stage 12 -->
    <_>
      <maxWeakCount>5</maxWeakCount>
      <stageThreshold>-1.2689493894577026e+00</stageThreshold>
      <weakClassifiers>
        <_>
          <internalNodes>
            0 -1 34 -9.5029417425394058e-03</internalNodes>
          <leafValues>
            4.4827586412429810e-01 -7.4279379844665527e-01</leafValues></_>
        <_>
          <internalNodes>
            0 -1 143 -2.8093886794522405e-04</internalNodes>
          <leafValues>
            -7.5176095962524414e-01 1.5853537619113922e-01</leafValues></_>
        <_>
          <internalNodes>
            0 -1 102 -4.4653788208961487e-03</internalNodes>
          <leafValues>
            5.3230923414230347e-01 -3.9706349372863770e-01</leafValues></_>
        <_>
          <internalNodes>
            0 -1 23 -5.6183896958827972e-02</internalNodes>
          <leafValues>
            -6.8813890218734741e-01 2.5912830233573914e-01</leafValues></_>
        <_>
          <internalNodes>
            0 -1 13 -7.2987808380275965e-05</internalNodes>
          <leafValues>
            -4.9822482466697693e-01 4.0051135420799255e-01</leafValues></_></weakClassifiers></_>
    <!-- stage 13 -->
    <_>
      <maxWeakCount>6</maxWeakCount>
      <stageThreshold>-1.3629021644592285e+00</stageThreshold>
      <weakClassifiers>
        <_>
          <internalNodes>
            0 -1 27 -2.0702198147773743e-02</internalNodes>
          <leafValues>
            7.1428574621677399e-02 -7.6886790990829468e-01</leafValues></_>
        <_>
          <internalNodes>
            0 -1 80 6.3115637749433517e-04</internalNodes>
          <leafValues>
            -5.1183867454528809e-01 3.8657593727111816e-01</leafValues></_>
        <_>
          <internalNodes>
            0 -1 100 3.9122783346101642e-04</internalNodes>
          <leafValues>
            -3.5075083374977112e-01 5.6825739145278931e-01</leafValues></_>
        <_>
          <internalNodes>
            0 -1 3 7.8258877620100975e-03</internalNodes>
          <leafValues>
            2.1374198794364929e-01 -8.7966090440750122e-01</leafValues></_>
        <_>
          <internalNodes>
            0 -1 95 1.2796169903595001e-04</internalNodes>
          <leafValues>
            -4.3372660875320435e-01 4.4714310765266418e-01</leafValues></_>
        <_>
          <internalNodes>
            0 -1 29 -1.9461181014776230e-02</internalNodes>
          <leafValues>
            7.9813200235366821e-01 -2.3548012971878052e-01</leafValues></_></weakClassifiers></_>
    <!-- stage 14 -->
    <_>
      <maxWeakCount>4</maxWeakCount>
      <stageThreshold>-1.0226129293441772e+00</stageThreshold>
      <weakClassifiers>
        <_>
          <internalNodes>
            0 -1 49 -1.2490617111325264e-02</internalNodes>
          <leafValues>
            -9.6774190664291382e-02 -7.5598084926605225e-01</leafValues></_>
        <_>
          <internalNodes>
            0 -1 36 -1.0054925223812461e-04</internalNodes>
          <leafValues>
            -7.4963176250457764e-01 8.5761882364749908e-02</leafValues></_>
        <_>
          <internalNodes>
            0 -1 26 -8.7421482021454722e-05</internalNodes>
          <leafValues>
            -6.2406277656555176e-01 2.0259773731231689e-01</leafValues></_>
        <_>
          <internalNodes>
            0 -1 106 2.5121879298239946e-04</internalNodes>
          <leafValues>
            -3.4229463338851929e-01 4.4785580039024353e-01</leafValues></_></weakClassifiers></_>
    <!-- stage 15 -->
    <_>
      <maxWeakCount>3</maxWeakCount>
      <stageThreshold>-1.1403911113739014e+00</stageThreshold>
      <weakClassifiers>
        <_>
          <internalNodes>
            0 -1 63 1.1086119775427505e-04</internalNodes>
          <leafValues>
            -8.0273973941802979e-01 -2.5217390060424805e-01</leafValues></_>
        <_>
          <internalNodes>
            0 -1 104 -7.9622253775596619e-02</internalNodes>
          <leafValues>
            2.6882848143577576e-01 -5.5039763450622559e-01</leafValues></_>
        <_>
          <internalNodes>
            0 -1 93 4.3497022124938667e-04</internalNodes>
          <leafValues>
            -3.3781954646110535e-01 5.0292009115219116e-01</leafValues></_></weakClassifiers></_>
    <!-- stage 16 -->
    <_>
      <maxWeakCount>7</maxWeakCount>
      <stageThreshold>-1.4863266944885254e+00</stageThreshold>
      <weakClassifiers>
        <_>
          <internalNodes>
            0 -1 116 3.3886983990669250e-02</internalNodes>
          <leafValues>
            -7.4266368150711060e-01 1.8918919563293457e-01</leafValues></_>
        <_>
          <internalNodes>
            0 -1 62 7.1714883670210838e-03</internalNodes>
          <leafValues>
            -5.5195504426956177e-01 2.5813081860542297e-01</leafValues></_>
        <_>
          <internalNodes>
            0 -1 112 -5.1180773880332708e-04</internalNodes>
          <leafValues>
            4.0793696045875549e-01 -3.5015991330146790e-01</leafValues></_>
        <_>
          <internalNodes>
            0 -1 88 -9.8036066628992558e-04</internalNodes>
          <leafValues>
            5.2326321601867676e-01 -2.7371197938919067e-01</leafValues></_>
        <_>
          <internalNodes>
            0 -1 99 -2.2559243370778859e-04</internalNodes>
          <leafValues>
            4.4263851642608643e-01 -3.0528309941291809e-01</leafValues></_>
        <_>
          <internalNodes>
            0 -1 123 3.7566799437627196e-04</internalNodes>
          <leafValues>
            1.9062183797359467e-01 -6.8710851669311523e-01</leafValues></_>
        <_>
          <internalNodes>
            0 -1 87 4.9097189912572503e-04</internalNodes>
          <leafValues>
            -2.5015002489089966e-01 5.7119965553283691e-01</leafValues></_></weakClassifiers></_>
    <!-- stage 17 -->
    <_>
      <maxWeakCount>7</maxWeakCount>
      <stageThreshold>-1.3516727685928345e+00</stageThreshold>
      <weakClassifiers>
        <_>
          <internalNodes>
            0 -1 12 -1.1042861640453339e-01</internalNodes>
          <leafValues>
            -4.2253520339727402e-02 -7.7995109558105469e-01</leafValues></_>
        <_>
          <internalNodes>
            0 -1 79 -1.0981543920934200e-02</internalNodes>
          <leafValues>
            1.5183083713054657e-01 -5.2245229482650757e-01</leafValues></_>
        <_>
          <internalNodes>
            0 -1 0 -1.4805980026721954e-03</internalNodes>
          <leafValues>
            -5.9999847412109375e-01 1.8666447699069977e-01</leafValues></_>
        <_>
          <internalNodes>
            0 -1 66 -1.4274387467594352e-05</internalNodes>
          <leafValues>
            2.6424688100814819e-01 -4.7573682665824890e-01</leafValues></_>
        <_>
          <internalNodes>
            0 -1 146 3.3176445867866278e-03</internalNodes>
          <leafValues>
            1.8610376119613647e-01 -7.6069104671478271e-01</leafValues></_>
        <_>
          <internalNodes>
            0 -1 111 -2.6563496794551611e-04</internalNodes>
          <leafValues>
            4.7500267624855042e-01 -3.0644604563713074e-01</leafValues></_>
        <_>
          <internalNodes>
            0 -1 73 2.8539659979287535e-05</internalNodes>
          <leafValues>
            -3.1413784623146057e-01 4.0950822830200195e-01</leafValues></_></weakClassifiers></_>
    <!-- stage 18 -->
    <_>
      <maxWeakCount>9</maxWeakCount>
      <stageThreshold>-1.6634883880615234e+00</stageThreshold>
      <weakClassifiers>
        <_>
          <internalNodes>
            0 -1 67 -5.4867994040250778e-03</internalNodes>
          <leafValues>
            4.4444444775581360e-01 -7.1428573131561279e-01</leafValues></_>
        <_>
          <internalNodes>
            0 -1 82 -6.4283169806003571e-02</internalNodes>
          <leafValues>
            1.5129905939102173e-01 -4.9381119012832642e-01</leafValues></_>
        <_>
          <internalNodes>
            0 -1 120 -2.3675875854678452e-04</internalNodes>
          <leafValues>
            3.7199583649635315e-01 -3.1327486038208008e-01</leafValues></_>
        <_>
          <internalNodes>
            0 -1 17 -6.3854281324893236e-04</internalNodes>
          <leafValues>
            -5.5489134788513184e-01 2.1627226471900940e-01</leafValues></_>
        <_>
          <internalNodes>
            0 -1 107 -5.0110113807022572e-04</internalNodes>
          <leafValues>
            3.6447408795356750e-01 -3.7579083442687988e-01</leafValues></_>
        <_>
          <internalNodes>
            0 -1 39 1.0370272211730480e-02</internalNodes>
          <leafValues>
            -2.5735098123550415e-01 5.0467872619628906e-01</leafValues></_>
        <_>
          <internalNodes>
            0 -1 129 1.4278509297582787e-05</internalNodes>
          <leafValues>
            -4.5232066512107849e-01 2.9122346639633179e-01</leafValues></_>
        <_>
          <internalNodes>
            0 -1 52 -8.2643018686212599e-05</internalNodes>
          <leafValues>
            -5.9932136535644531e-01 2.0791985094547272e-01</leafValues></_>
        <_>
          <internalNodes>
            0 -1 103 -6.2890624394640326e-04</internalNodes>
          <leafValues>
            6.0415023565292358e-01 -2.2111119329929352e-01</leafValues></_></weakClassifiers></_>
    <!-- stage 19 -->
    <_>
      <maxWeakCount>7</maxWeakCount>
      <stageThreshold>-1.1410996913909912e+00</stageThreshold>
      <weakClassifiers>
        <_>
          <internalNodes>
            0 -1 142 1.2651886790990829e-02</internalNodes>
          <leafValues>
            -7.2645741701126099e-01 5.8823529630899429e-02</leafValues></_>
        <_>
          <internalNodes>
            0 -1 68 -2.7778310701251030e-02</internalNodes>
          <leafValues>
            1.8393979966640472e-01 -4.6631300449371338e-01</leafValues></_>
        <_>
          <internalNodes>
            0 -1 14 4.9561244668439031e-04</internalNodes>
          <leafValues>
            1.2203873693943024e-01 -8.2431328296661377e-01</leafValues></_>
        <_>
          <internalNodes>
            0 -1 44 -1.8770270049571991e-02</internalNodes>
          <leafValues>
            4.9135378003120422e-01 -2.5816005468368530e-01</leafValues></_>
        <_>
          <internalNodes>
            0 -1 70 2.0955298095941544e-02</internalNodes>
          <leafValues>
            -1.6521035134792328e-01 5.6149423122406006e-01</leafValues></_>
        <_>
          <internalNodes>
            0 -1 128 -2.0163167209830135e-04</internalNodes>
          <leafValues>
            3.2645079493522644e-01 -3.3355057239532471e-01</leafValues></_>
        <_>
          <internalNodes>
            0 -1 134 3.9368198486045003e-05</internalNodes>
          <leafValues>
            2.4300768971443176e-01 -4.2686304450035095e-01</leafValues></_></weakClassifiers></_>
    <!-- stage 20 -->
    <_>
      <maxWeakCount>7</maxWeakCount>
      <stageThreshold>-1.2844506502151489e+00</stageThreshold>
      <weakClassifiers>
        <_>
          <internalNodes>
            0 -1 117 1.3262355327606201e-01</internalNodes>
          <leafValues>
            -7.1058315038681030e-01 4.1176471114158630e-01</leafValues></_>
        <_>
          <internalNodes>
            0 -1 138 -4.4917826016899198e-05</internalNodes>
          <leafValues>
            -7.2167974710464478e-01 3.5221181809902191e-02</leafValues></_>
        <_>
          <internalNodes>
            0 -1 141 5.6704401504248381e-04</internalNodes>
          <leafValues>
            7.4886918067932129e-02 -8.6442559957504272e-01</leafValues></_>
        <_>
          <internalNodes>
            0 -1 56 8.4315129788592458e-04</internalNodes>
          <leafValues>
            -2.4167187511920929e-01 4.6003589034080505e-01</leafValues></_>
        <_>
          <internalNodes>
            0 -1 21 1.3790752273052931e-03</internalNodes>
          <leafValues>
            1.0684601962566376e-01 -8.7475407123565674e-01</leafValues></_>
        <_>
          <internalNodes>
            0 -1 85 -5.6448241230100393e-04</internalNodes>
          <leafValues>
            4.9508035182952881e-01 -2.2709961235523224e-01</leafValues></_>
        <_>
          <internalNodes>
            0 -1 131 -5.6006174418143928e-05</internalNodes>
          <leafValues>
            3.4784346818923950e-01 -3.2205009460449219e-01</leafValues></_></weakClassifiers></_>
    <!-- stage 21 -->
    <_>
      <maxWeakCount>8</maxWeakCount>
      <stageThreshold>-1.2188794612884521e+00</stageThreshold>
      <weakClassifiers>
        <_>
          <internalNodes>
            0 -1 125 -6.0649411752820015e-03</internalNodes>
          <leafValues>
            7.7777779102325439e-01 -6.9851380586624146e-01</leafValues></_>
        <_>
          <internalNodes>
            0 -1 109 -1.5443919226527214e-02</internalNodes>
          <leafValues>
            2.9747590422630310e-01 -4.0340980887413025e-01</leafValues></_>
        <_>
          <internalNodes>
            0 -1 149 -1.1707366444170475e-02</internalNodes>
          <leafValues>
            -8.5412353277206421e-01 1.6092863678932190e-01</leafValues></_>
        <_>
          <internalNodes>
            0 -1 64 1.4356970496010035e-05</internalNodes>
          <leafValues>
            -3.3592393994331360e-01 3.5596024990081787e-01</leafValues></_>
        <_>
          <internalNodes>
            0 -1 96 -4.5263214269652963e-04</internalNodes>
          <leafValues>
            4.9463140964508057e-01 -2.3315000534057617e-01</leafValues></_>
        <_>
          <internalNodes>
            0 -1 86 -3.3096068364102393e-05</internalNodes>
          <leafValues>
            3.1690800189971924e-01 -3.3566966652870178e-01</leafValues></_>
        <_>
          <internalNodes>
            0 -1 57 1.2057406827807426e-02</internalNodes>
          <leafValues>
            -1.7200145125389099e-01 7.9651236534118652e-01</leafValues></_>
        <_>
          <internalNodes>
            0 -1 77 1.0340951848775148e-03</internalNodes>
          <leafValues>
            1.4628289639949799e-01 -9.4135469198226929e-01</leafValues></_></weakClassifiers></_>
    <!-- stage 22 -->
    <_>
      <maxWeakCount>8</maxWeakCount>
      <stageThreshold>-1.0524147748947144e+00</stageThreshold>
      <weakClassifiers>
        <_>
          <internalNodes>
            0 -1 20 -2.5689747184514999e-02</internalNodes>
          <leafValues>
            -1.3333334028720856e-01 -7.4761903285980225e-01</leafValues></_>
        <_>
          <internalNodes>
            0 -1 81 -3.3328431891277432e-04</internalNodes>
          <leafValues>
            2.4209746718406677e-01 -3.9031279087066650e-01</leafValues></_>
        <_>
          <internalNodes>
            0 -1 84 -2.2123833186924458e-03</internalNodes>
          <leafValues>
            -5.7136189937591553e-01 1.7285783588886261e-01</leafValues></_>
        <_>
          <internalNodes>
            0 -1 65 5.0334114348515868e-04</internalNodes>
          <leafValues>
            -3.0203628540039063e-01 3.4293565154075623e-01</leafValues></_>
        <_>
          <internalNodes>
            0 -1 42 -2.9892330989241600e-02</internalNodes>
          <leafValues>
            -1. 1.5266092121601105e-01</leafValues></_>
        <_>
          <internalNodes>
            0 -1 105 -1.4356970496010035e-05</internalNodes>
          <leafValues>
            2.6536777615547180e-01 -3.9612054824829102e-01</leafValues></_>
        <_>
          <internalNodes>
            0 -1 83 -1.2425903696566820e-03</internalNodes>
          <leafValues>
            2.1977679431438446e-01 -5.1677286624908447e-01</leafValues></_>
        <_>
          <internalNodes>
            0 -1 119 -1.6255665104836226e-04</internalNodes>
          <leafValues>
            4.9691191315650940e-01 -3.0084601044654846e-01</leafValues></_></weakClassifiers></_>
    <!-- stage 23 -->
    <_>
      <maxWeakCount>8</maxWeakCount>
      <stageThreshold>-1.2541140317916870e+00</stageThreshold>
      <weakClassifiers>
        <_>
          <internalNodes>
            0 -1 133 1.5474321320652962e-02</internalNodes>
          <leafValues>
            -6.9556027650833130e-01 1.</leafValues></_>
        <_>
          <internalNodes>
            0 -1 91 -1.3976339250802994e-02</internalNodes>
          <leafValues>
            -6.9930380582809448e-01 3.8266330957412720e-02</leafValues></_>
        <_>
          <internalNodes>
            0 -1 74 1.3615978881716728e-02</internalNodes>
          <leafValues>
            7.2658449411392212e-02 -1.</leafValues></_>
        <_>
          <internalNodes>
            0 -1 90 2.7622008929029107e-05</internalNodes>
          <leafValues>
            -3.8617533445358276e-01 2.3939396440982819e-01</leafValues></_>
        <_>
          <internalNodes>
            0 -1 78 -2.0673462131526321e-04</internalNodes>
          <leafValues>
            -5.2917486429214478e-01 1.7594937980175018e-01</leafValues></_>
        <_>
          <internalNodes>
            0 -1 94 -1.1896494543179870e-03</internalNodes>
          <leafValues>
            4.8536682128906250e-01 -2.3862797021865845e-01</leafValues></_>
        <_>
          <internalNodes>
            0 -1 61 2.0838822820223868e-04</internalNodes>
          <leafValues>
            -3.5502842068672180e-01 3.2038018107414246e-01</leafValues></_>
        <_>
          <internalNodes>
            0 -1 19 -2.7138664154335856e-04</internalNodes>
          <leafValues>
            2.4640464782714844e-01 -4.6447736024856567e-01</leafValues></_></weakClassifiers></_>
    <!-- stage 24 -->
    <_>
      <maxWeakCount>9</maxWeakCount>
      <stageThreshold>-1.0977857112884521e+00</stageThreshold>
      <weakClassifiers>
        <_>
          <internalNodes>
            0 -1 41 7.9523976892232895e-03</internalNodes>
          <leafValues>
            -7.0149254798889160e-01 6.3636362552642822e-01</leafValues></_>
        <_>
          <internalNodes>
            0 -1 110 -3.3392071723937988e-02</internalNodes>
          <leafValues>
            2.5419980287551880e-01 -3.9222276210784912e-01</leafValues></_>
        <_>
          <internalNodes>
            0 -1 122 -2.6650359359337017e-05</internalNodes>
          <leafValues>
            4.1316208243370056e-01 -3.0660235881805420e-01</leafValues></_>
        <_>
          <internalNodes>
            0 -1 15 -1.7166702309623361e-04</internalNodes>
          <leafValues>
            -5.2280539274215698e-01 2.2220818698406219e-01</leafValues></_>
        <_>
          <internalNodes>
            0 -1 31 -5.1812767982482910e-02</internalNodes>
          <leafValues>
            -5.5987888574600220e-01 2.1571475267410278e-01</leafValues></_>
        <_>
          <internalNodes>
            0 -1 71 2.6921808603219688e-04</internalNodes>
          <leafValues>
            -2.8999611735343933e-01 3.9216461777687073e-01</leafValues></_>
        <_>
          <internalNodes>
            0 -1 72 -2.9318252927623689e-04</internalNodes>
          <leafValues>
            3.6098784208297729e-01 -3.2052418589591980e-01</leafValues></_>
        <_>
          <internalNodes>
            0 -1 150 4.9617188051342964e-04</internalNodes>
          <leafValues>
            1.0953661054372787e-01 -8.7971347570419312e-01</leafValues></_>
        <_>
          <internalNodes>
            0 -1 127 -1.2276194989681244e-02</internalNodes>
          <leafValues>
            5.8648902177810669e-01 -2.2248651087284088e-01</leafValues></_></weakClassifiers></_></stages>
  <features>
    <_>
      <rects>
        <_>
          0 0 1 15 -1.</_>
        <_>
          0 5 1 5 3.</_></rects>
      <tilted>0</tilted></_>
    <_>
      <rects>
        <_>
          0 0 24 21 -1.</_>
        <_>
          8 0 8 21 3.</_></rects>
      <tilted>0</tilted></_>
    <_>
      <rects>
        <_>
          0 0 24 24 -1.</_>
        <_>
          8 0 8 24 3.</_></rects>
      <tilted>0</tilted></_>
    <_>
      <rects>
        <_>
          0 0 18 1 -1.</_>
        <_>
          9 0 9 1 2.</_></rects>
      <tilted>0</tilted></_>
    <_>
      <rects>
        <_>
          0 1 1 6 -1.</_>
        <_>
          0 3 1 2 3.</_></rects>
      <tilted>0</tilted></_>
    <_>
      <rects>
        <_>
          0 1 1 9 -1.</_>
        <_>
          0 4 1 3 3.</_></rects>
      <tilted>0</tilted></_>
    <_>
      <rects>
        <_>
          0 1 3 2 -1.</_>
        <_>
          0 2 3 1 2.</_></rects>
      <tilted>0</tilted></_>
    <_>
      <rects>
        <_>
          0 1 8 15 -1.</_>
        <_>
          4 1 4 15 2.</_></rects>
      <tilted>0</tilted></_>
    <_>
      <rects>
        <_>
          0 2 10 21 -1.</_>
        <_>
          5 2 5 21 2.</_></rects>
      <tilted>0</tilted></_>
    <_>
      <rects>
        <_>
          0 2 24 10 -1.</_>
        <_>
          8 2 8 10 3.</_></rects>
      <tilted>0</tilted></_>
    <_>
      <rects>
        <_>
          0 2 24 17 -1.</_>
        <_>
          8 2 8 17 3.</_></rects>
      <tilted>0</tilted></_>
    <_>
      <rects>
        <_>
          0 3 8 12 -1.</_>
        <_>
          4 3 4 12 2.</_></rects>
      <tilted>0</tilted></_>
    <_>
      <rects>
        <_>
          0 3 10 10 -1.</_>
        <_>
          5 3 5 10 2.</_></rects>
      <tilted>0</tilted></_>
    <_>
      <rects>
        <_>
          0 4 1 12 -1.</_>
        <_>
          0 10 1 6 2.</_></rects>
      <tilted>0</tilted></_>
    <_>
      <rects>
        <_>
          0 4 2 2 -1.</_>
        <_>
          0 5 2 1 2.</_></rects>
      <tilted>0</tilted></_>
    <_>
      <rects>
        <_>
          0 6 1 9 -1.</_>
        <_>
          0 9 1 3 3.</_></rects>
      <tilted>0</tilted></_>
    <_>
      <rects>
        <_>
          0 6 6 14 -1.</_>
        <_>
          2 6 2 14 3.</_></rects>
      <tilted>0</tilted></_>
    <_>
      <rects>
        <_>
          0 8 1 6 -1.</_>
        <_>
          0 11 1 3 2.</_></rects>
      <tilted>0</tilted></_>
    <_>
      <rects>
        <_>
          0 8 9 5 -1.</_>
        <_>
          3 8 3 5 3.</_></rects>
      <tilted>0</tilted></_>
    <_>
      <rects>
        <_>
          0 8 11 2 -1.</_>
        <_>
          0 9 11 1 2.</_></rects>
      <tilted>0</tilted></_>
    <_>
      <rects>
        <_>
          0 9 6 7 -1.</_>
        <_>
          2 9 2 7 3.</_></rects>
      <tilted>0</tilted></_>
    <_>
      <rects>
        <_>
          0 15 2 8 -1.</_>
        <_>
          1 15 1 8 2.</_></rects>
      <tilted>0</tilted></_>
    <_>
      <rects>
        <_>
          0 19 7 2 -1.</_>
        <_>
          0 20 7 1 2.</_></rects>
      <tilted>0</tilted></_>
    <_>
      <rects>
        <_>
          0 19 24 5 -1.</_>
        <_>
          12 19 12 5 2.</_></rects>
      <tilted>0</tilted></_>
    <_>
      <rects>
        <_>
          0 20 23 4 -1.</_>
        <_>
          0 22 23 2 2.</_></rects>
      <tilted>0</tilted></_>
    <_>
      <rects>
        <_>
          0 21 4 2 -1.</_>
        <_>
          2 21 2 2 2.</_></rects>
      <tilted>0</tilted></_>
    <_>
      <rects>
        <_>
          0 22 6 1 -1.</_>
        <_>
          2 22 2 1 3.</_></rects>
      <tilted>0</tilted></_>
    <_>
      <rects>
        <_>
          1 0 6 8 -1.</_>
        <_>
          1 0 3 4 2.</_>
        <_>
          4 4 3 4 2.</_></rects>
      <tilted>0</tilted></_>
    <_>
      <rects>
        <_>
          1 2 1 3 -1.</_>
        <_>
          1 3 1 1 3.</_></rects>
      <tilted>0</tilted></_>
    <_>
      <rects>
        <_>
          1 2 4 12 -1.</_>
        <_>
          1 2 2 6 2.</_>
        <_>
          3 8 2 6 2.</_></rects>
      <tilted>0</tilted></_>
    <_>
      <rects>
        <_>
          1 2 6 9 -1.</_>
        <_>
          4 2 3 9 2.</_></rects>
      <tilted>0</tilted></_>
    <_>
      <rects>
        <_>
          1 2 22 6 -1.</_>
        <_>
          12 2 11 6 2.</_></rects>
      <tilted>0</tilted></_>
    <_>
      <rects>
        <_>
          1 6 6 14 -1.</_>
        <_>
          3 6 2 14 3.</_></rects>
      <tilted>0</tilted></_>
    <_>
      <rects>
        <_>
          1 6 6 16 -1.</_>
        <_>
          3 6 2 16 3.</_></rects>
      <tilted>0</tilted></_>
    <_>
      <rects>
        <_>
          1 8 2 6 -1.</_>
        <_>
          2 8 1 6 2.</_></rects>
      <tilted>0</tilted></_>
    <_>
      <rects>
        <_>
          1 21 15 2 -1.</_>
        <_>
          1 22 15 1 2.</_></rects>
      <tilted>0</tilted></_>
    <_>
      <rects>
        <_>
          2 0 4 1 -1.</_>
        <_>
          4 0 2 1 2.</_></rects>
      <tilted>0</tilted></_>
    <_>
      <rects>
        <_>
          2 0 20 24 -1.</_>
        <_>
          2 8 20 8 3.</_></rects>
      <tilted>0</tilted></_>
    <_>
      <rects>
        <_>
          2 2 4 1 -1.</_>
        <_>
          4 2 2 1 2.</_></rects>
      <tilted>0</tilted></_>
    <_>
      <rects>
        <_>
          2 2 6 12 -1.</_>
        <_>
          2 2 3 6 2.</_>
        <_>
          5 8 3 6 2.</_></rects>
      <tilted>0</tilted></_>
    <_>
      <rects>
        <_>
          2 2 11 14 -1.</_>
        <_>
          2 9 11 7 2.</_></rects>
      <tilted>0</tilted></_>
    <_>
      <rects>
        <_>
          2 6 3 3 -1.</_>
        <_>
          3 6 1 3 3.</_></rects>
      <tilted>0</tilted></_>
    <_>
      <rects>
        <_>
          2 9 12 6 -1.</_>
        <_>
          2 11 12 2 3.</_></rects>
      <tilted>0</tilted></_>
    <_>
      <rects>
        <_>
          2 9 21 4 -1.</_>
        <_>
          2 11 21 2 2.</_></rects>
      <tilted>0</tilted></_>
    <_>
      <rects>
        <_>
          2 17 15 6 -1.</_>
        <_>
          2 19 15 2 3.</_></rects>
      <tilted>0</tilted></_>
    <_>
      <rects>
        <_>
          2 22 2 1 -1.</_>
        <_>
          3 22 1 1 2.</_></rects>
      <tilted>0</tilted></_>
    <_>
      <rects>
        <_>
          2 23 3 1 -1.</_>
        <_>
          3 23 1 1 3.</_></rects>
      <tilted>0</tilted></_>
    <_>
      <rects>
        <_>
          3 0 2 3 -1.</_>
        <_>
          4 0 1 3 2.</_></rects>
      <tilted>0</tilted></_>
    <_>
      <rects>
        <_>
          3 0 6 2 -1.</_>
        <_>
          5 0 2 2 3.</_></rects>
      <tilted>0</tilted></_>
    <_>
      <rects>
        <_>
          3 0 8 4 -1.</_>
        <_>
          3 0 4 2 2.</_>
        <_>
          7 2 4 2 2.</_></rects>
      <tilted>0</tilted></_>
    <_>
      <rects>
        <_>
          3 0 18 8 -1.</_>
        <_>
          3 4 18 4 2.</_></rects>
      <tilted>0</tilted></_>
    <_>
      <rects>
        <_>
          3 0 19 24 -1.</_>
        <_>
          3 8 19 8 3.</_></rects>
      <tilted>0</tilted></_>
    <_>
      <rects>
        <_>
          3 22 6 2 -1.</_>
        <_>
          3 22 3 1 2.</_>
        <_>
          6 23 3 1 2.</_></rects>
      <tilted>0</tilted></_>
    <_>
      <rects>
        <_>
          4 0 15 4 -1.</_>
        <_>
          4 2 15 2 2.</_></rects>
      <tilted>0</tilted></_>
    <_>
      <rects>
        <_>
          4 0 18 10 -1.</_>
        <_>
          4 5 18 5 2.</_></rects>
      <tilted>0</tilted></_>
    <_>
      <rects>
        <_>
          4 3 3 1 -1.</_>
        <_>
          5 3 1 1 3.</_></rects>
      <tilted>0</tilted></_>
    <_>
      <rects>
        <_>
          4 5 4 2 -1.</_>
        <_>
          4 5 2 1 2.</_>
        <_>
          6 6 2 1 2.</_></rects>
      <tilted>0</tilted></_>
    <_>
      <rects>
        <_>
          4 6 3 13 -1.</_>
        <_>
          5 6 1 13 3.</_></rects>
      <tilted>0</tilted></_>
    <_>
      <rects>
        <_>
          4 15 6 4 -1.</_>
        <_>
          4 15 3 2 2.</_>
        <_>
          7 17 3 2 2.</_></rects>
      <tilted>0</tilted></_>
    <_>
      <rects>
        <_>
          5 0 6 1 -1.</_>
        <_>
          7 0 2 1 3.</_></rects>
      <tilted>0</tilted></_>
    <_>
      <rects>
        <_>
          5 0 11 4 -1.</_>
        <_>
          5 2 11 2 2.</_></rects>
      <tilted>0</tilted></_>
    <_>
      <rects>
        <_>
          5 17 6 2 -1.</_>
        <_>
          5 17 3 1 2.</_>
        <_>
          8 18 3 1 2.</_></rects>
      <tilted>0</tilted></_>
    <_>
      <rects>
        <_>
          6 10 1 14 -1.</_>
        <_>
          6 17 1 7 2.</_></rects>
      <tilted>0</tilted></_>
    <_>
      <rects>
        <_>
          6 11 2 1 -1.</_>
        <_>
          7 11 1 1 2.</_></rects>
      <tilted>0</tilted></_>
    <_>
      <rects>
        <_>
          6 13 2 2 -1.</_>
        <_>
          6 13 1 1 2.</_>
        <_>
          7 14 1 1 2.</_></rects>
      <tilted>0</tilted></_>
    <_>
      <rects>
        <_>
          6 16 6 2 -1.</_>
        <_>
          6 16 3 1 2.</_>
        <_>
          9 17 3 1 2.</_></rects>
      <tilted>0</tilted></_>
    <_>
      <rects>
        <_>
          6 17 4 1 -1.</_>
        <_>
          8 17 2 1 2.</_></rects>
      <tilted>0</tilted></_>
    <_>
      <rects>
        <_>
          7 0 6 2 -1.</_>
        <_>
          7 0 3 1 2.</_>
        <_>
          10 1 3 1 2.</_></rects>
      <tilted>0</tilted></_>
    <_>
      <rects>
        <_>
          7 1 12 7 -1.</_>
        <_>
          11 1 4 7 3.</_></rects>
      <tilted>0</tilted></_>
    <_>
      <rects>
        <_>
          7 1 15 6 -1.</_>
        <_>
          7 4 15 3 2.</_></rects>
      <tilted>0</tilted></_>
    <_>
      <rects>
        <_>
          7 4 1 20 -1.</_>
        <_>
          7 14 1 10 2.</_></rects>
      <tilted>0</tilted></_>
    <_>
      <rects>
        <_>
          7 12 2 2 -1.</_>
        <_>
          8 12 1 2 2.</_></rects>
      <tilted>0</tilted></_>
    <_>
      <rects>
        <_>
          7 13 3 1 -1.</_>
        <_>
          8 13 1 1 3.</_></rects>
      <tilted>0</tilted></_>
    <_>
      <rects>
        <_>
          7 15 2 2 -1.</_>
        <_>
          7 15 1 1 2.</_>
        <_>
          8 16 1 1 2.</_></rects>
      <tilted>0</tilted></_>
    <_>
      <rects>
        <_>
          7 15 4 8 -1.</_>
        <_>
          7 15 2 4 2.</_>
        <_>
          9 19 2 4 2.</_></rects>
      <tilted>0</tilted></_>
    <_>
      <rects>
        <_>
          7 18 8 3 -1.</_>
        <_>
          11 18 4 3 2.</_></rects>
      <tilted>0</tilted></_>
    <_>
      <rects>
        <_>
          7 21 12 2 -1.</_>
        <_>
          7 22 12 1 2.</_></rects>
      <tilted>0</tilted></_>
    <_>
      <rects>
        <_>
          7 22 3 2 -1.</_>
        <_>
          8 22 1 2 3.</_></rects>
      <tilted>0</tilted></_>
    <_>
      <rects>
        <_>
          8 0 4 1 -1.</_>
        <_>
          10 0 2 1 2.</_></rects>
      <tilted>0</tilted></_>
    <_>
      <rects>
        <_>
          8 1 10 9 -1.</_>
        <_>
          8 4 10 3 3.</_></rects>
      <tilted>0</tilted></_>
    <_>
      <rects>
        <_>
          8 11 2 4 -1.</_>
        <_>
          8 11 1 2 2.</_>
        <_>
          9 13 1 2 2.</_></rects>
      <tilted>0</tilted></_>
    <_>
      <rects>
        <_>
          8 14 2 2 -1.</_>
        <_>
          8 14 1 1 2.</_>
        <_>
          9 15 1 1 2.</_></rects>
      <tilted>0</tilted></_>
    <_>
      <rects>
        <_>
          9 0 13 8 -1.</_>
        <_>
          9 4 13 4 2.</_></rects>
      <tilted>0</tilted></_>
    <_>
      <rects>
        <_>
          9 1 6 11 -1.</_>
        <_>
          11 1 2 11 3.</_></rects>
      <tilted>0</tilted></_>
    <_>
      <rects>
        <_>
          9 10 1 9 -1.</_>
        <_>
          9 13 1 3 3.</_></rects>
      <tilted>0</tilted></_>
    <_>
      <rects>
        <_>
          9 12 2 2 -1.</_>
        <_>
          9 12 1 1 2.</_>
        <_>
          10 13 1 1 2.</_></rects>
      <tilted>0</tilted></_>
    <_>
      <rects>
        <_>
          9 13 1 3 -1.</_>
        <_>
          9 14 1 1 3.</_></rects>
      <tilted>0</tilted></_>
    <_>
      <rects>
        <_>
          9 13 2 2 -1.</_>
        <_>
          9 13 1 1 2.</_>
        <_>
          10 14 1 1 2.</_></rects>
      <tilted>0</tilted></_>
    <_>
      <rects>
        <_>
          9 15 3 2 -1.</_>
        <_>
          10 15 1 2 3.</_></rects>
      <tilted>0</tilted></_>
    <_>
      <rects>
        <_>
          9 15 1 6 -1.</_>
        <_>
          9 17 1 2 3.</_></rects>
      <tilted>0</tilted></_>
    <_>
      <rects>
        <_>
          9 21 1 2 -1.</_>
        <_>
          9 22 1 1 2.</_></rects>
      <tilted>0</tilted></_>
    <_>
      <rects>
        <_>
          10 4 6 11 -1.</_>
        <_>
          12 4 2 11 3.</_></rects>
      <tilted>0</tilted></_>
    <_>
      <rects>
        <_>
          10 7 3 7 -1.</_>
        <_>
          11 7 1 7 3.</_></rects>
      <tilted>0</tilted></_>
    <_>
      <rects>
        <_>
          10 21 1 3 -1.</_>
        <_>
          10 22 1 1 3.</_></rects>
      <tilted>0</tilted></_>
    <_>
      <rects>
        <_>
          11 2 8 2 -1.</_>
        <_>
          11 2 4 1 2.</_>
        <_>
          15 3 4 1 2.</_></rects>
      <tilted>0</tilted></_>
    <_>
      <rects>
        <_>
          11 5 1 3 -1.</_>
        <_>
          11 6 1 1 3.</_></rects>
      <tilted>0</tilted></_>
    <_>
      <rects>
        <_>
          11 14 2 2 -1.</_>
        <_>
          11 14 1 1 2.</_>
        <_>
          12 15 1 1 2.</_></rects>
      <tilted>0</tilted></_>
    <_>
      <rects>
        <_>
          12 0 7 8 -1.</_>
        <_>
          12 4 7 4 2.</_></rects>
      <tilted>0</tilted></_>
    <_>
      <rects>
        <_>
          12 1 12 21 -1.</_>
        <_>
          18 1 6 21 2.</_></rects>
      <tilted>0</tilted></_>
    <_>
      <rects>
        <_>
          12 8 3 1 -1.</_>
        <_>
          13 8 1 1 3.</_></rects>
      <tilted>0</tilted></_>
    <_>
      <rects>
        <_>
          12 12 1 3 -1.</_>
        <_>
          12 13 1 1 3.</_></rects>
      <tilted>0</tilted></_>
    <_>
      <rects>
        <_>
          12 13 9 5 -1.</_>
        <_>
          15 13 3 5 3.</_></rects>
      <tilted>0</tilted></_>
    <_>
      <rects>
        <_>
          12 15 9 1 -1.</_>
        <_>
          15 15 3 1 3.</_></rects>
      <tilted>0</tilted></_>
    <_>
      <rects>
        <_>
          12 16 2 2 -1.</_>
        <_>
          12 16 1 1 2.</_>
        <_>
          13 17 1 1 2.</_></rects>
      <tilted>0</tilted></_>
    <_>
      <rects>
        <_>
          13 1 9 12 -1.</_>
        <_>
          13 7 9 6 2.</_></rects>
      <tilted>0</tilted></_>
    <_>
      <rects>
        <_>
          13 3 3 10 -1.</_>
        <_>
          14 3 1 10 3.</_></rects>
      <tilted>0</tilted></_>
    <_>
      <rects>
        <_>
          13 9 2 1 -1.</_>
        <_>
          14 9 1 1 2.</_></rects>
      <tilted>0</tilted></_>
    <_>
      <rects>
        <_>
          13 9 4 3 -1.</_>
        <_>
          13 10 4 1 3.</_></rects>
      <tilted>0</tilted></_>
    <_>
      <rects>
        <_>
          14 0 9 2 -1.</_>
        <_>
          17 0 3 2 3.</_></rects>
      <tilted>0</tilted></_>
    <_>
      <rects>
        <_>
          14 2 8 4 -1.</_>
        <_>
          14 4 8 2 2.</_></rects>
      <tilted>0</tilted></_>
    <_>
      <rects>
        <_>
          14 4 10 18 -1.</_>
        <_>
          14 4 5 9 2.</_>
        <_>
          19 13 5 9 2.</_></rects>
      <tilted>0</tilted></_>
    <_>
      <rects>
        <_>
          14 8 6 1 -1.</_>
        <_>
          17 8 3 1 2.</_></rects>
      <tilted>0</tilted></_>
    <_>
      <rects>
        <_>
          14 11 4 2 -1.</_>
        <_>
          14 12 4 1 2.</_></rects>
      <tilted>0</tilted></_>
    <_>
      <rects>
        <_>
          14 12 10 7 -1.</_>
        <_>
          19 12 5 7 2.</_></rects>
      <tilted>0</tilted></_>
    <_>
      <rects>
        <_>
          14 14 1 10 -1.</_>
        <_>
          14 19 1 5 2.</_></rects>
      <tilted>0</tilted></_>
    <_>
      <rects>
        <_>
          15 1 6 12 -1.</_>
        <_>
          15 7 6 6 2.</_></rects>
      <tilted>0</tilted></_>
    <_>
      <rects>
        <_>
          15 3 8 3 -1.</_>
        <_>
          19 3 4 3 2.</_></rects>
      <tilted>0</tilted></_>
    <_>
      <rects>
        <_>
          15 6 5 16 -1.</_>
        <_>
          15 14 5 8 2.</_></rects>
      <tilted>0</tilted></_>
    <_>
      <rects>
        <_>
          15 7 9 4 -1.</_>
        <_>
          15 9 9 2 2.</_></rects>
      <tilted>0</tilted></_>
    <_>
      <rects>
        <_>
          15 8 2 1 -1.</_>
        <_>
          16 8 1 1 2.</_></rects>
      <tilted>0</tilted></_>
    <_>
      <rects>
        <_>
          15 12 1 6 -1.</_>
        <_>
          15 15 1 3 2.</_></rects>
      <tilted>0</tilted></_>
    <_>
      <rects>
        <_>
          15 14 1 10 -1.</_>
        <_>
          15 19 1 5 2.</_></rects>
      <tilted>0</tilted></_>
    <_>
      <rects>
        <_>
          15 16 1 2 -1.</_>
        <_>
          15 17 1 1 2.</_></rects>
      <tilted>0</tilted></_>
    <_>
      <rects>
        <_>
          15 22 6 2 -1.</_>
        <_>
          15 22 3 1 2.</_>
        <_>
          18 23 3 1 2.</_></rects>
      <tilted>0</tilted></_>
    <_>
      <rects>
        <_>
          16 0 8 2 -1.</_>
        <_>
          16 0 4 1 2.</_>
        <_>
          20 1 4 1 2.</_></rects>
      <tilted>0</tilted></_>
    <_>
      <rects>
        <_>
          16 2 3 3 -1.</_>
        <_>
          17 2 1 3 3.</_></rects>
      <tilted>0</tilted></_>
    <_>
      <rects>
        <_>
          16 5 8 15 -1.</_>
        <_>
          20 5 4 15 2.</_></rects>
      <tilted>0</tilted></_>
    <_>
      <rects>
        <_>
          16 8 8 6 -1.</_>
        <_>
          16 10 8 2 3.</_></rects>
      <tilted>0</tilted></_>
    <_>
      <rects>
        <_>
          16 11 3 2 -1.</_>
        <_>
          16 12 3 1 2.</_></rects>
      <tilted>0</tilted></_>
    <_>
      <rects>
        <_>
          16 12 2 3 -1.</_>
        <_>
          17 12 1 3 2.</_></rects>
      <tilted>0</tilted></_>
    <_>
      <rects>
        <_>
          17 0 6 1 -1.</_>
        <_>
          20 0 3 1 2.</_></rects>
      <tilted>0</tilted></_>
    <_>
      <rects>
        <_>
          17 7 1 2 -1.</_>
        <_>
          17 8 1 1 2.</_></rects>
      <tilted>0</tilted></_>
    <_>
      <rects>
        <_>
          17 8 6 4 -1.</_>
        <_>
          19 8 2 4 3.</_></rects>
      <tilted>0</tilted></_>
    <_>
      <rects>
        <_>
          18 1 2 10 -1.</_>
        <_>
          18 6 2 5 2.</_></rects>
      <tilted>0</tilted></_>
    <_>
      <rects>
        <_>
          18 2 5 3 -1.</_>
        <_>
          18 3 5 1 3.</_></rects>
      <tilted>0</tilted></_>
    <_>
      <rects>
        <_>
          19 0 4 3 -1.</_>
        <_>
          21 0 2 3 2.</_></rects>
      <tilted>0</tilted></_>
    <_>
      <rects>
        <_>
          19 1 2 4 -1.</_>
        <_>
          20 1 1 4 2.</_></rects>
      <tilted>0</tilted></_>
    <_>
      <rects>
        <_>
          20 0 3 7 -1.</_>
        <_>
          21 0 1 7 3.</_></rects>
      <tilted>0</tilted></_>
    <_>
      <rects>
        <_>
          20 0 4 9 -1.</_>
        <_>
          20 3 4 3 3.</_></rects>
      <tilted>0</tilted></_>
    <_>
      <rects>
        <_>
          21 0 3 2 -1.</_>
        <_>
          22 0 1 2 3.</_></rects>
      <tilted>0</tilted></_>
    <_>
      <rects>
        <_>
          21 3 2 2 -1.</_>
        <_>
          21 3 1 1 2.</_>
        <_>
          22 4 1 1 2.</_></rects>
      <tilted>0</tilted></_>
    <_>
      <rects>
        <_>
          21 7 1 3 -1.</_>
        <_>
          21 8 1 1 3.</_></rects>
      <tilted>0</tilted></_>
    <_>
      <rects>
        <_>
          21 7 2 9 -1.</_>
        <_>
          22 7 1 9 2.</_></rects>
      <tilted>0</tilted></_>
    <_>
      <rects>
        <_>
          22 0 2 4 -1.</_>
        <_>
          22 2 2 2 2.</_></rects>
      <tilted>0</tilted></_>
    <_>
      <rects>
        <_>
          22 16 2 8 -1.</_>
        <_>
          22 16 1 4 2.</_>
        <_>
          23 20 1 4 2.</_></rects>
      <tilted>0</tilted></_>
    <_>
      <rects>
        <_>
          22 22 2 1 -1.</_>
        <_>
          23 22 1 1 2.</_></rects>
      <tilted>0</tilted></_>
    <_>
      <rects>
        <_>
          23 0 1 9 -1.</_>
        <_>
          23 3 1 3 3.</_></rects>
      <tilted>0</tilted></_>
    <_>
      <rects>
        <_>
          23 0 1 22 -1.</_>
        <_>
          23 11 1 11 2.</_></rects>
      <tilted>0</tilted></_>
    <_>
      <rects>
        <_>
          23 1 1 8 -1.</_>
        <_>
          23 5 1 4 2.</_></rects>
      <tilted>0</tilted></_>
    <_>
      <rects>
        <_>
          23 2 1 22 -1.</_>
        <_>
          23 13 1 11 2.</_></rects>
      <tilted>0</tilted></_>
    <_>
      <rects>
        <_>
          23 20 1 3 -1.</_>
        <_>
          23 21 1 1 3.</_></rects>
      <tilted>0</tilted></_></features></cascade>
</opencv_storage>
